digraph Tree {
node [shape=box, style="filled, rounded", color="black", fontname="helvetica"] ;
edge [fontname="helvetica"] ;
0 [label="Work_Interest <= 0.5\nsquared_error = 0.657\nsamples = 229729\nvalue = 0.976", fillcolor="#f2c19e"] ;
1 [label="Days_Indoors <= 3.5\nsquared_error = 0.664\nsamples = 67006\nvalue = 0.911", fillcolor="#f3c6a5"] ;
0 -> 1 [labeldistance=2.5, labelangle=45, headlabel="True"] ;
2 [label="Days_Indoors <= 2.5\nsquared_error = 0.652\nsamples = 57100\nvalue = 0.854", fillcolor="#f4c9aa"] ;
1 -> 2 ;
3 [label="Mental_Health_History <= 1.5\nsquared_error = 0.676\nsamples = 41682\nvalue = 0.956", fillcolor="#f3c3a0"] ;
2 -> 3 ;
4 [label="Social_Weakness <= 0.5\nsquared_error = 0.648\nsamples = 30080\nvalue = 0.816", fillcolor="#f4ccae"] ;
3 -> 4 ;
5 [label="Student <= 0.5\nsquared_error = 0.679\nsamples = 7686\nvalue = 0.503", fillcolor="#f8dfcd"] ;
4 -> 5 ;
6 [label="Mental_Health_History <= 0.5\nsquared_error = 0.451\nsamples = 6437\nvalue = 0.3", fillcolor="#fbece1"] ;
5 -> 6 ;
7 [label="squared_error = 0.237\nsamples = 4910\nvalue = 0.138", fillcolor="#fdf6f1"] ;
6 -> 7 ;
8 [label="squared_error = 0.783\nsamples = 1527\nvalue = 0.821", fillcolor="#f4cbae"] ;
6 -> 8 ;
9 [label="Days_Indoors <= 0.5\nsquared_error = 0.544\nsamples = 1249\nvalue = 1.552", fillcolor="#eb9d65"] ;
5 -> 9 ;
10 [label="squared_error = 0.22\nsamples = 282\nvalue = 0.674", fillcolor="#f6d5bc"] ;
9 -> 10 ;
11 [label="squared_error = 0.348\nsamples = 967\nvalue = 1.808", fillcolor="#e88d4c"] ;
9 -> 11 ;
12 [label="Business <= 0.5\nsquared_error = 0.592\nsamples = 22394\nvalue = 0.923", fillcolor="#f3c5a4"] ;
4 -> 12 ;
13 [label="Changes_Habits <= 0.5\nsquared_error = 0.612\nsamples = 18870\nvalue = 0.986", fillcolor="#f2c19d"] ;
12 -> 13 ;
14 [label="squared_error = 0.622\nsamples = 6014\nvalue = 0.798", fillcolor="#f5cdb0"] ;
13 -> 14 ;
15 [label="squared_error = 0.582\nsamples = 12856\nvalue = 1.075", fillcolor="#f1bb95"] ;
13 -> 15 ;
16 [label="Mental_Health_History <= 0.5\nsquared_error = 0.348\nsamples = 3524\nvalue = 0.583", fillcolor="#f7dac5"] ;
12 -> 16 ;
17 [label="squared_error = 0.3\nsamples = 2538\nvalue = 0.809", fillcolor="#f4ccaf"] ;
16 -> 17 ;
18 [label="squared_error = 0.0\nsamples = 986\nvalue = 0.0", fillcolor="#ffffff"] ;
16 -> 18 ;
19 [label="Gender <= 0.5\nsquared_error = 0.565\nsamples = 11602\nvalue = 1.321", fillcolor="#eeac7c"] ;
3 -> 19 ;
20 [label="Student <= 0.5\nsquared_error = 0.451\nsamples = 9701\nvalue = 1.45", fillcolor="#eca46f"] ;
19 -> 20 ;
21 [label="Mood_Swings <= 0.5\nsquared_error = 0.385\nsamples = 7276\nvalue = 1.534", fillcolor="#eb9e67"] ;
20 -> 21 ;
22 [label="squared_error = 0.476\nsamples = 2914\nvalue = 1.16", fillcolor="#f0b68c"] ;
21 -> 22 ;
23 [label="squared_error = 0.17\nsamples = 4362\nvalue = 1.783", fillcolor="#e88f4e"] ;
21 -> 23 ;
24 [label="Days_Indoors <= 0.5\nsquared_error = 0.563\nsamples = 2425\nvalue = 1.198", fillcolor="#efb488"] ;
20 -> 24 ;
25 [label="squared_error = 0.25\nsamples = 987\nvalue = 0.504", fillcolor="#f8dfcd"] ;
24 -> 25 ;
26 [label="squared_error = 0.22\nsamples = 1438\nvalue = 1.675", fillcolor="#e99659"] ;
24 -> 26 ;
27 [label="Days_Indoors <= 0.5\nsquared_error = 0.627\nsamples = 1901\nvalue = 0.663", fillcolor="#f6d5bd"] ;
19 -> 27 ;
28 [label="Coping_Struggles <= 0.5\nsquared_error = 0.681\nsamples = 392\nvalue = 1.258", fillcolor="#efb082"] ;
27 -> 28 ;
29 [label="squared_error = 0.25\nsamples = 195\nvalue = 0.508", fillcolor="#f8dfcd"] ;
28 -> 29 ;
30 [label="squared_error = 0.0\nsamples = 197\nvalue = 2.0", fillcolor="#e58139"] ;
28 -> 30 ;
31 [label="Days_Indoors <= 1.5\nsquared_error = 0.498\nsamples = 1509\nvalue = 0.509", fillcolor="#f8dfcd"] ;
27 -> 31 ;
32 [label="squared_error = 0.0\nsamples = 648\nvalue = 0.0", fillcolor="#ffffff"] ;
31 -> 32 ;
33 [label="squared_error = 0.531\nsamples = 861\nvalue = 0.892", fillcolor="#f3c7a7"] ;
31 -> 33 ;
34 [label="Changes_Habits <= 0.5\nsquared_error = 0.482\nsamples = 15418\nvalue = 0.576", fillcolor="#f8dbc6"] ;
2 -> 34 ;
35 [label="Business <= 0.5\nsquared_error = 0.58\nsamples = 6421\nvalue = 0.927", fillcolor="#f3c5a3"] ;
34 -> 35 ;
36 [label="Coping_Struggles <= 0.5\nsquared_error = 0.417\nsamples = 5170\nvalue = 0.74", fillcolor="#f5d0b6"] ;
35 -> 36 ;
37 [label="Mood_Swings <= 1.5\nsquared_error = 0.238\nsamples = 2699\nvalue = 0.392", fillcolor="#fae6d8"] ;
36 -> 37 ;
38 [label="squared_error = 0.237\nsamples = 1722\nvalue = 0.614", fillcolor="#f7d8c2"] ;
37 -> 38 ;
39 [label="squared_error = 0.0\nsamples = 977\nvalue = 0.0", fillcolor="#ffffff"] ;
37 -> 39 ;
40 [label="Corporate <= 0.5\nsquared_error = 0.335\nsamples = 2471\nvalue = 1.12", fillcolor="#f0b890"] ;
36 -> 40 ;
41 [label="squared_error = 0.054\nsamples = 1704\nvalue = 0.943", fillcolor="#f3c4a2"] ;
40 -> 41 ;
42 [label="squared_error = 0.737\nsamples = 767\nvalue = 1.512", fillcolor="#eba069"] ;
40 -> 42 ;
43 [label="Gender <= 0.5\nsquared_error = 0.509\nsamples = 1251\nvalue = 1.701", fillcolor="#e99457"] ;
35 -> 43 ;
44 [label="squared_error = 0.0\nsamples = 956\nvalue = 2.0", fillcolor="#e58139"] ;
43 -> 44 ;
45 [label="Mood_Swings <= 0.5\nsquared_error = 0.928\nsamples = 295\nvalue = 0.732", fillcolor="#f5d1b7"] ;
43 -> 45 ;
46 [label="squared_error = 0.0\nsamples = 94\nvalue = 0.0", fillcolor="#ffffff"] ;
45 -> 46 ;
47 [label="squared_error = 0.994\nsamples = 201\nvalue = 1.075", fillcolor="#f1bb95"] ;
45 -> 47 ;
48 [label="Coping_Struggles <= 0.5\nsquared_error = 0.262\nsamples = 8997\nvalue = 0.326", fillcolor="#fbeadf"] ;
34 -> 48 ;
49 [label="Gender <= 0.5\nsquared_error = 0.145\nsamples = 4257\nvalue = 0.113", fillcolor="#fef8f4"] ;
48 -> 49 ;
50 [label="squared_error = 0.0\nsamples = 2928\nvalue = 0.0", fillcolor="#ffffff"] ;
49 -> 50 ;
51 [label="Mental_Health_History <= 0.5\nsquared_error = 0.375\nsamples = 1329\nvalue = 0.361", fillcolor="#fae8db"] ;
49 -> 51 ;
52 [label="squared_error = 0.675\nsamples = 293\nvalue = 0.98", fillcolor="#f2c19e"] ;
51 -> 52 ;
53 [label="squared_error = 0.152\nsamples = 1036\nvalue = 0.186", fillcolor="#fdf3ed"] ;
51 -> 53 ;
54 [label="Business <= 0.5\nsquared_error = 0.289\nsamples = 4740\nvalue = 0.517", fillcolor="#f8decc"] ;
48 -> 54 ;
55 [label="Mental_Health_History <= 1.5\nsquared_error = 0.288\nsamples = 4248\nvalue = 0.577", fillcolor="#f7dbc6"] ;
54 -> 55 ;
56 [label="squared_error = 0.337\nsamples = 2060\nvalue = 0.446", fillcolor="#f9e3d3"] ;
55 -> 56 ;
57 [label="squared_error = 0.21\nsamples = 2188\nvalue = 0.7", fillcolor="#f6d3ba"] ;
55 -> 57 ;
58 [label="squared_error = 0.0\nsamples = 492\nvalue = 0.0", fillcolor="#ffffff"] ;
54 -> 58 ;
59 [label="Social_Weakness <= 1.5\nsquared_error = 0.603\nsamples = 9906\nvalue = 1.241", fillcolor="#efb184"] ;
1 -> 59 ;
60 [label="Social_Weakness <= 0.5\nsquared_error = 0.718\nsamples = 5120\nvalue = 0.941", fillcolor="#f3c4a2"] ;
59 -> 60 ;
61 [label="Mood_Swings <= 1.0\nsquared_error = 0.36\nsamples = 1241\nvalue = 1.699", fillcolor="#e99457"] ;
60 -> 61 ;
62 [label="Mental_Health_History <= 0.5\nsquared_error = 0.222\nsamples = 280\nvalue = 0.668", fillcolor="#f6d5bd"] ;
61 -> 62 ;
63 [label="squared_error = 0.0\nsamples = 93\nvalue = 0.0", fillcolor="#ffffff"] ;
62 -> 63 ;
64 [label="squared_error = 0.0\nsamples = 187\nvalue = 1.0", fillcolor="#f2c09c"] ;
62 -> 64 ;
65 [label="squared_error = 0.0\nsamples = 961\nvalue = 2.0", fillcolor="#e58139"] ;
61 -> 65 ;
66 [label="Mood_Swings <= 0.5\nsquared_error = 0.59\nsamples = 3879\nvalue = 0.699", fillcolor="#f6d3ba"] ;
60 -> 66 ;
67 [label="Coping_Struggles <= 0.5\nsquared_error = 0.462\nsamples = 1498\nvalue = 1.305", fillcolor="#eead7e"] ;
66 -> 67 ;
68 [label="Corporate <= 0.5\nsquared_error = 0.186\nsamples = 755\nvalue = 0.752", fillcolor="#f5d0b5"] ;
67 -> 68 ;
69 [label="squared_error = 0.219\nsamples = 277\nvalue = 0.325", fillcolor="#fbebdf"] ;
68 -> 69 ;
70 [label="squared_error = 0.0\nsamples = 478\nvalue = 1.0", fillcolor="#f2c09c"] ;
68 -> 70 ;
71 [label="Changes_Habits <= 0.5\nsquared_error = 0.115\nsamples = 743\nvalue = 1.867", fillcolor="#e78946"] ;
67 -> 71 ;
72 [label="squared_error = 0.249\nsamples = 186\nvalue = 1.468", fillcolor="#eca36e"] ;
71 -> 72 ;
73 [label="squared_error = 0.0\nsamples = 557\nvalue = 2.0", fillcolor="#e58139"] ;
71 -> 73 ;
74 [label="Coping_Struggles <= 0.5\nsquared_error = 0.294\nsamples = 2381\nvalue = 0.318", fillcolor="#fbebe0"] ;
66 -> 74 ;
75 [label="Mental_Health_History <= 1.5\nsquared_error = 0.24\nsamples = 753\nvalue = 1.004", fillcolor="#f2c09c"] ;
74 -> 75 ;
76 [label="squared_error = 0.117\nsamples = 661\nvalue = 0.865", fillcolor="#f4c8a9"] ;
75 -> 76 ;
77 [label="squared_error = 0.0\nsamples = 92\nvalue = 2.0", fillcolor="#e58139"] ;
75 -> 77 ;
78 [label="squared_error = 0.0\nsamples = 1628\nvalue = 0.0", fillcolor="#ffffff"] ;
74 -> 78 ;
79 [label="Changes_Habits <= 0.5\nsquared_error = 0.282\nsamples = 4786\nvalue = 1.561", fillcolor="#eb9d64"] ;
59 -> 79 ;
80 [label="Student <= 0.5\nsquared_error = 0.168\nsamples = 1502\nvalue = 1.057", fillcolor="#f1bc96"] ;
79 -> 80 ;
81 [label="Mood_Swings <= 0.5\nsquared_error = 0.107\nsamples = 1416\nvalue = 1.121", fillcolor="#f0b890"] ;
80 -> 81 ;
82 [label="squared_error = 0.0\nsamples = 86\nvalue = 2.0", fillcolor="#e58139"] ;
81 -> 82 ;
83 [label="Gender <= 0.5\nsquared_error = 0.06\nsamples = 1330\nvalue = 1.065", fillcolor="#f1bc96"] ;
81 -> 83 ;
84 [label="squared_error = 0.0\nsamples = 969\nvalue = 1.0", fillcolor="#f2c09c"] ;
83 -> 84 ;
85 [label="squared_error = 0.181\nsamples = 361\nvalue = 1.238", fillcolor="#efb184"] ;
83 -> 85 ;
86 [label="squared_error = 0.0\nsamples = 86\nvalue = 0.0", fillcolor="#ffffff"] ;
80 -> 86 ;
87 [label="Mental_Health_History <= 0.5\nsquared_error = 0.165\nsamples = 3284\nvalue = 1.791", fillcolor="#e88e4e"] ;
79 -> 87 ;
88 [label="Corporate <= 0.5\nsquared_error = 0.25\nsamples = 1171\nvalue = 1.501", fillcolor="#eba06a"] ;
87 -> 88 ;
89 [label="squared_error = 0.0\nsamples = 584\nvalue = 1.0", fillcolor="#f2c09c"] ;
88 -> 89 ;
90 [label="squared_error = 0.0\nsamples = 587\nvalue = 2.0", fillcolor="#e58139"] ;
88 -> 90 ;
91 [label="Business <= 0.5\nsquared_error = 0.046\nsamples = 2113\nvalue = 1.952", fillcolor="#e6843e"] ;
87 -> 91 ;
92 [label="squared_error = 0.0\nsamples = 2011\nvalue = 2.0", fillcolor="#e58139"] ;
91 -> 92 ;
93 [label="squared_error = 0.0\nsamples = 102\nvalue = 1.0", fillcolor="#f2c09c"] ;
91 -> 93 ;
94 [label="Days_Indoors <= 3.5\nsquared_error = 0.652\nsamples = 162723\nvalue = 1.003", fillcolor="#f2c09c"] ;
0 -> 94 [labeldistance=2.5, labelangle=-45, headlabel="False"] ;
95 [label="Mood_Swings <= 0.5\nsquared_error = 0.661\nsamples = 128787\nvalue = 1.057", fillcolor="#f1bc96"] ;
94 -> 95 ;
96 [label="Days_Indoors <= 1.5\nsquared_error = 0.634\nsamples = 44030\nvalue = 1.18", fillcolor="#f0b58a"] ;
95 -> 96 ;
97 [label="Days_Indoors <= 0.5\nsquared_error = 0.65\nsamples = 24548\nvalue = 1.054", fillcolor="#f1bd97"] ;
96 -> 97 ;
98 [label="Social_Weakness <= 1.5\nsquared_error = 0.604\nsamples = 10387\nvalue = 1.218", fillcolor="#efb286"] ;
97 -> 98 ;
99 [label="Gender <= 0.5\nsquared_error = 0.4\nsamples = 6424\nvalue = 1.525", fillcolor="#eb9f68"] ;
98 -> 99 ;
100 [label="squared_error = 0.208\nsamples = 4813\nvalue = 1.705", fillcolor="#e99456"] ;
99 -> 100 ;
101 [label="squared_error = 0.59\nsamples = 1611\nvalue = 0.989", fillcolor="#f2c19d"] ;
99 -> 101 ;
102 [label="Coping_Struggles <= 0.5\nsquared_error = 0.534\nsamples = 3963\nvalue = 0.721", fillcolor="#f6d2b8"] ;
98 -> 102 ;
103 [label="squared_error = 0.248\nsamples = 1035\nvalue = 1.545", fillcolor="#eb9e66"] ;
102 -> 103 ;
104 [label="squared_error = 0.311\nsamples = 2928\nvalue = 0.43", fillcolor="#f9e4d4"] ;
102 -> 104 ;
105 [label="Business <= 0.5\nsquared_error = 0.65\nsamples = 14161\nvalue = 0.934", fillcolor="#f3c4a3"] ;
97 -> 105 ;
106 [label="Changes_Habits <= 0.5\nsquared_error = 0.576\nsamples = 12153\nvalue = 0.852", fillcolor="#f4c9ab"] ;
105 -> 106 ;
107 [label="squared_error = 0.387\nsamples = 4632\nvalue = 1.109", fillcolor="#f1b991"] ;
106 -> 107 ;
108 [label="squared_error = 0.626\nsamples = 7521\nvalue = 0.694", fillcolor="#f6d3ba"] ;
106 -> 108 ;
109 [label="Work_Interest <= 1.5\nsquared_error = 0.82\nsamples = 2008\nvalue = 1.424", fillcolor="#eca572"] ;
105 -> 109 ;
110 [label="squared_error = 0.99\nsamples = 1053\nvalue = 0.902", fillcolor="#f3c6a6"] ;
109 -> 110 ;
111 [label="squared_error = 0.0\nsamples = 955\nvalue = 2.0", fillcolor="#e58139"] ;
109 -> 111 ;
112 [label="Corporate <= 0.5\nsquared_error = 0.569\nsamples = 19482\nvalue = 1.338", fillcolor="#eeab7b"] ;
96 -> 112 ;
113 [label="Gender <= 0.5\nsquared_error = 0.5\nsamples = 17642\nvalue = 1.4", fillcolor="#eda774"] ;
112 -> 113 ;
114 [label="Student <= 0.5\nsquared_error = 0.45\nsamples = 14546\nvalue = 1.465", fillcolor="#eca36e"] ;
113 -> 114 ;
115 [label="squared_error = 0.334\nsamples = 10630\nvalue = 1.589", fillcolor="#ea9b62"] ;
114 -> 115 ;
116 [label="squared_error = 0.611\nsamples = 3916\nvalue = 1.128", fillcolor="#f0b88f"] ;
114 -> 116 ;
117 [label="Housewife <= 0.5\nsquared_error = 0.624\nsamples = 3096\nvalue = 1.096", fillcolor="#f1ba92"] ;
113 -> 117 ;
118 [label="squared_error = 0.594\nsamples = 2633\nvalue = 1.216", fillcolor="#efb287"] ;
117 -> 118 ;
119 [label="squared_error = 0.242\nsamples = 463\nvalue = 0.413", fillcolor="#fae5d6"] ;
117 -> 119 ;
120 [label="Coping_Struggles <= 0.5\nsquared_error = 0.833\nsamples = 1840\nvalue = 0.743", fillcolor="#f5d0b5"] ;
112 -> 120 ;
121 [label="Days_Indoors <= 2.5\nsquared_error = 0.117\nsamples = 679\nvalue = 0.135", fillcolor="#fdf6f2"] ;
120 -> 121 ;
122 [label="squared_error = 0.0\nsamples = 92\nvalue = 1.0", fillcolor="#f2c09c"] ;
121 -> 122 ;
123 [label="squared_error = 0.0\nsamples = 587\nvalue = 0.0", fillcolor="#ffffff"] ;
121 -> 123 ;
124 [label="Changes_Habits <= 0.5\nsquared_error = 0.91\nsamples = 1161\nvalue = 1.098", fillcolor="#f1ba92"] ;
120 -> 124 ;
125 [label="squared_error = 0.521\nsamples = 662\nvalue = 0.418", fillcolor="#fae5d6"] ;
124 -> 125 ;
126 [label="squared_error = 0.0\nsamples = 499\nvalue = 2.0", fillcolor="#e58139"] ;
124 -> 126 ;
127 [label="Changes_Habits <= 0.5\nsquared_error = 0.663\nsamples = 84757\nvalue = 0.993", fillcolor="#f2c09d"] ;
95 -> 127 ;
128 [label="Student <= 0.5\nsquared_error = 0.644\nsamples = 30824\nvalue = 1.1", fillcolor="#f1ba92"] ;
127 -> 128 ;
129 [label="Days_Indoors <= 2.5\nsquared_error = 0.619\nsamples = 21334\nvalue = 1.23", fillcolor="#efb185"] ;
128 -> 129 ;
130 [label="Work_Interest <= 1.5\nsquared_error = 0.648\nsamples = 18062\nvalue = 1.15", fillcolor="#f0b78d"] ;
129 -> 130 ;
131 [label="squared_error = 0.517\nsamples = 9084\nvalue = 1.39", fillcolor="#eda775"] ;
130 -> 131 ;
132 [label="squared_error = 0.664\nsamples = 8978\nvalue = 0.906", fillcolor="#f3c6a5"] ;
130 -> 132 ;
133 [label="Housewife <= 0.5\nsquared_error = 0.219\nsamples = 3272\nvalue = 1.676", fillcolor="#e99559"] ;
129 -> 133 ;
134 [label="squared_error = 0.101\nsamples = 2401\nvalue = 1.885", fillcolor="#e68844"] ;
133 -> 134 ;
135 [label="squared_error = 0.09\nsamples = 871\nvalue = 1.1", fillcolor="#f1ba92"] ;
133 -> 135 ;
136 [label="Mood_Swings <= 1.5\nsquared_error = 0.578\nsamples = 9490\nvalue = 0.808", fillcolor="#f5ccaf"] ;
128 -> 136 ;
137 [label="Work_Interest <= 1.5\nsquared_error = 0.507\nsamples = 6653\nvalue = 0.568", fillcolor="#f8dbc7"] ;
136 -> 137 ;
138 [label="squared_error = 0.376\nsamples = 2875\nvalue = 0.232", fillcolor="#fcf0e8"] ;
137 -> 138 ;
139 [label="squared_error = 0.455\nsamples = 3778\nvalue = 0.825", fillcolor="#f4cbad"] ;
137 -> 139 ;
140 [label="Mental_Health_History <= 1.5\nsquared_error = 0.297\nsamples = 2837\nvalue = 1.369", fillcolor="#eda977"] ;
136 -> 140 ;
141 [label="squared_error = 0.229\nsamples = 2176\nvalue = 1.177", fillcolor="#f0b58a"] ;
140 -> 141 ;
142 [label="squared_error = 0.0\nsamples = 661\nvalue = 2.0", fillcolor="#e58139"] ;
140 -> 142 ;
143 [label="Mental_Health_History <= 1.5\nsquared_error = 0.664\nsamples = 53933\nvalue = 0.931", fillcolor="#f3c4a3"] ;
127 -> 143 ;
144 [label="Social_Weakness <= 1.5\nsquared_error = 0.646\nsamples = 34135\nvalue = 1.009", fillcolor="#f2bf9b"] ;
143 -> 144 ;
145 [label="Work_Interest <= 1.5\nsquared_error = 0.551\nsamples = 22233\nvalue = 0.88", fillcolor="#f4c8a8"] ;
144 -> 145 ;
146 [label="squared_error = 0.596\nsamples = 10879\nvalue = 0.672", fillcolor="#f6d5bc"] ;
145 -> 146 ;
147 [label="squared_error = 0.426\nsamples = 11354\nvalue = 1.08", fillcolor="#f1bb94"] ;
145 -> 147 ;
148 [label="Changes_Habits <= 1.5\nsquared_error = 0.735\nsamples = 11902\nvalue = 1.248", fillcolor="#efb083"] ;
144 -> 148 ;
149 [label="squared_error = 0.88\nsamples = 5670\nvalue = 1.03", fillcolor="#f2be99"] ;
148 -> 149 ;
150 [label="squared_error = 0.52\nsamples = 6232\nvalue = 1.447", fillcolor="#eca470"] ;
148 -> 150 ;
151 [label="Social_Weakness <= 1.5\nsquared_error = 0.667\nsamples = 19798\nvalue = 0.798", fillcolor="#f5cdb0"] ;
143 -> 151 ;
152 [label="Changes_Habits <= 1.5\nsquared_error = 0.717\nsamples = 14870\nvalue = 0.927", fillcolor="#f3c5a3"] ;
151 -> 152 ;
153 [label="squared_error = 0.696\nsamples = 8037\nvalue = 0.665", fillcolor="#f6d5bd"] ;
152 -> 153 ;
154 [label="squared_error = 0.565\nsamples = 6833\nvalue = 1.235", fillcolor="#efb185"] ;
152 -> 154 ;
155 [label="Changes_Habits <= 1.5\nsquared_error = 0.317\nsamples = 4928\nvalue = 0.41", fillcolor="#fae5d6"] ;
151 -> 155 ;
156 [label="squared_error = 0.284\nsamples = 2697\nvalue = 0.678", fillcolor="#f6d4bc"] ;
155 -> 156 ;
157 [label="squared_error = 0.165\nsamples = 2231\nvalue = 0.086", fillcolor="#fefaf6"] ;
155 -> 157 ;
158 [label="Mood_Swings <= 1.5\nsquared_error = 0.567\nsamples = 33936\nvalue = 0.801", fillcolor="#f5cdb0"] ;
94 -> 158 ;
159 [label="Changes_Habits <= 0.5\nsquared_error = 0.474\nsamples = 24890\nvalue = 0.676", fillcolor="#f6d4bc"] ;
158 -> 159 ;
160 [label="Housewife <= 0.5\nsquared_error = 0.477\nsamples = 9515\nvalue = 0.874", fillcolor="#f4c8a8"] ;
159 -> 160 ;
161 [label="Mental_Health_History <= 1.5\nsquared_error = 0.39\nsamples = 8067\nvalue = 0.733", fillcolor="#f5d1b6"] ;
160 -> 161 ;
162 [label="Social_Weakness <= 0.5\nsquared_error = 0.332\nsamples = 4726\nvalue = 0.514", fillcolor="#f8dfcc"] ;
161 -> 162 ;
163 [label="squared_error = 0.139\nsamples = 583\nvalue = 1.166", fillcolor="#f0b68c"] ;
162 -> 163 ;
164 [label="squared_error = 0.291\nsamples = 4143\nvalue = 0.423", fillcolor="#fae4d5"] ;
162 -> 164 ;
165 [label="Gender <= 0.5\nsquared_error = 0.31\nsamples = 3341\nvalue = 1.041", fillcolor="#f1bd98"] ;
161 -> 165 ;
166 [label="squared_error = 0.162\nsamples = 2415\nvalue = 1.204", fillcolor="#efb388"] ;
165 -> 166 ;
167 [label="squared_error = 0.444\nsamples = 926\nvalue = 0.617", fillcolor="#f7d8c2"] ;
165 -> 167 ;
168 [label="Mental_Health_History <= 1.0\nsquared_error = 0.223\nsamples = 1448\nvalue = 1.664", fillcolor="#e9965a"] ;
160 -> 168 ;
169 [label="squared_error = 0.0\nsamples = 961\nvalue = 2.0", fillcolor="#e58139"] ;
168 -> 169 ;
170 [label="squared_error = 0.0\nsamples = 487\nvalue = 1.0", fillcolor="#f2c09c"] ;
168 -> 170 ;
171 [label="Coping_Struggles <= 0.5\nsquared_error = 0.433\nsamples = 15375\nvalue = 0.553", fillcolor="#f8dcc8"] ;
159 -> 171 ;
172 [label="Changes_Habits <= 1.5\nsquared_error = 0.498\nsamples = 8296\nvalue = 0.77", fillcolor="#f5cfb3"] ;
171 -> 172 ;
173 [label="Social_Weakness <= 1.5\nsquared_error = 0.638\nsamples = 4351\nvalue = 0.973", fillcolor="#f2c29f"] ;
172 -> 173 ;
174 [label="squared_error = 0.548\nsamples = 2634\nvalue = 1.206", fillcolor="#efb388"] ;
173 -> 174 ;
175 [label="squared_error = 0.565\nsamples = 1717\nvalue = 0.616", fillcolor="#f7d8c2"] ;
173 -> 175 ;
176 [label="Corporate <= 0.5\nsquared_error = 0.248\nsamples = 3945\nvalue = 0.546", fillcolor="#f8ddc9"] ;
172 -> 176 ;
177 [label="squared_error = 0.232\nsamples = 3390\nvalue = 0.635", fillcolor="#f7d7c0"] ;
176 -> 177 ;
178 [label="squared_error = 0.0\nsamples = 555\nvalue = 0.0", fillcolor="#ffffff"] ;
176 -> 178 ;
179 [label="Social_Weakness <= 1.5\nsquared_error = 0.238\nsamples = 7079\nvalue = 0.299", fillcolor="#fbece1"] ;
171 -> 179 ;
180 [label="Changes_Habits <= 1.5\nsquared_error = 0.173\nsamples = 5357\nvalue = 0.163", fillcolor="#fdf5ef"] ;
179 -> 180 ;
181 [label="squared_error = 0.05\nsamples = 3584\nvalue = 0.053", fillcolor="#fefcfa"] ;
180 -> 181 ;
182 [label="squared_error = 0.348\nsamples = 1773\nvalue = 0.384", fillcolor="#fae7d9"] ;
180 -> 182 ;
183 [label="Mental_Health_History <= 1.5\nsquared_error = 0.2\nsamples = 1722\nvalue = 0.724", fillcolor="#f6d1b7"] ;
179 -> 183 ;
184 [label="squared_error = 0.14\nsamples = 571\nvalue = 0.168", fillcolor="#fdf4ee"] ;
183 -> 184 ;
185 [label="squared_error = 0.0\nsamples = 1151\nvalue = 1.0", fillcolor="#f2c09c"] ;
183 -> 185 ;
186 [label="Coping_Struggles <= 0.5\nsquared_error = 0.661\nsamples = 9046\nvalue = 1.145", fillcolor="#f0b78e"] ;
158 -> 186 ;
187 [label="Mental_Health_History <= 0.5\nsquared_error = 0.686\nsamples = 3588\nvalue = 0.726", fillcolor="#f6d1b7"] ;
186 -> 187 ;
188 [label="Social_Weakness <= 1.0\nsquared_error = 0.108\nsamples = 779\nvalue = 1.877", fillcolor="#e78945"] ;
187 -> 188 ;
189 [label="Student <= 0.5\nsquared_error = 0.25\nsamples = 193\nvalue = 1.503", fillcolor="#eba06a"] ;
188 -> 189 ;
190 [label="squared_error = 0.0\nsamples = 97\nvalue = 2.0", fillcolor="#e58139"] ;
189 -> 190 ;
191 [label="squared_error = 0.0\nsamples = 96\nvalue = 1.0", fillcolor="#f2c09c"] ;
189 -> 191 ;
192 [label="squared_error = 0.0\nsamples = 586\nvalue = 2.0", fillcolor="#e58139"] ;
188 -> 192 ;
193 [label="Changes_Habits <= 0.5\nsquared_error = 0.377\nsamples = 2809\nvalue = 0.407", fillcolor="#fae5d7"] ;
187 -> 193 ;
194 [label="Corporate <= 0.5\nsquared_error = 0.071\nsamples = 1165\nvalue = 0.077", fillcolor="#fefaf7"] ;
193 -> 194 ;
195 [label="squared_error = 0.0\nsamples = 1075\nvalue = 0.0", fillcolor="#ffffff"] ;
194 -> 195 ;
196 [label="squared_error = 0.0\nsamples = 90\nvalue = 1.0", fillcolor="#f2c09c"] ;
194 -> 196 ;
197 [label="Housewife <= 0.5\nsquared_error = 0.462\nsamples = 1644\nvalue = 0.64", fillcolor="#f7d7c0"] ;
193 -> 197 ;
198 [label="squared_error = 0.408\nsamples = 971\nvalue = 0.295", fillcolor="#fbece2"] ;
197 -> 198 ;
199 [label="squared_error = 0.119\nsamples = 673\nvalue = 1.138", fillcolor="#f0b78e"] ;
197 -> 199 ;
200 [label="Gender <= 0.5\nsquared_error = 0.453\nsamples = 5458\nvalue = 1.42", fillcolor="#eda672"] ;
186 -> 200 ;
201 [label="Mental_Health_History <= 0.5\nsquared_error = 0.247\nsamples = 4315\nvalue = 1.554", fillcolor="#eb9d65"] ;
200 -> 201 ;
202 [label="squared_error = 0.0\nsamples = 951\nvalue = 1.0", fillcolor="#f2c09c"] ;
201 -> 202 ;
203 [label="Changes_Habits <= 1.5\nsquared_error = 0.206\nsamples = 3364\nvalue = 1.71", fillcolor="#e99356"] ;
201 -> 203 ;
204 [label="squared_error = 0.25\nsamples = 1940\nvalue = 1.498", fillcolor="#eca16b"] ;
203 -> 204 ;
205 [label="squared_error = 0.0\nsamples = 1424\nvalue = 2.0", fillcolor="#e58139"] ;
203 -> 205 ;
206 [label="Changes_Habits <= 0.5\nsquared_error = 0.909\nsamples = 1143\nvalue = 0.917", fillcolor="#f3c5a4"] ;
200 -> 206 ;
207 [label="Housewife <= 0.5\nsquared_error = 0.189\nsamples = 380\nvalue = 1.747", fillcolor="#e89152"] ;
206 -> 207 ;
208 [label="squared_error = 0.0\nsamples = 284\nvalue = 2.0", fillcolor="#e58139"] ;
207 -> 208 ;
209 [label="squared_error = 0.0\nsamples = 96\nvalue = 1.0", fillcolor="#f2c09c"] ;
207 -> 209 ;
210 [label="Business <= 0.5\nsquared_error = 0.753\nsamples = 763\nvalue = 0.503", fillcolor="#f8dfcd"] ;
206 -> 210 ;
211 [label="squared_error = 0.489\nsamples = 666\nvalue = 0.285", fillcolor="#fbede3"] ;
210 -> 211 ;
212 [label="squared_error = 0.0\nsamples = 97\nvalue = 2.0", fillcolor="#e58139"] ;
210 -> 212 ;
}